<?xml version="1.0"?>
<opencv_storage>
<cascade>
  <stageType>BOOST</stageType>
  <featureType>HAAR</featureType>
  <height>24</height>
  <width>24</width>
  <stageParams>
    <boostType>DAB</boostType>
    <minHitRate>9.9500000476837158e-01</minHitRate>
    <maxFalseAlarm>5.0000000000000000e-01</maxFalseAlarm>
    <weightTrimRate>9.4999998807907104e-01</weightTrimRate>
    <maxDepth>1</maxDepth>
    <maxWeakCount>100</maxWeakCount></stageParams>
  <featureParams>
    <maxCatCount>0</maxCatCount>
    <featSize>1</featSize>
    <mode>BASIC</mode></featureParams>
  <stageNum>9</stageNum>
  <stages>
    <!-- stage 0 -->
    <_>
      <maxWeakCount>3</maxWeakCount>
      <stageThreshold>-2.0569710731506348e+00</stageThreshold>
      <weakClassifiers>
        <_>
          <internalNodes>
            0 -1 15 4.0397692471742630e-02</internalNodes>
          <leafValues>
            -1.9673416614532471e+00 1.9673416614532471e+00</leafValues></_>
        <_>
          <internalNodes>
            0 -1 49 9.0524479746818542e-02</internalNodes>
          <leafValues>
            -1.6164437532424927e+00 1.6164437532424927e+00</leafValues></_>
        <_>
          <internalNodes>
            0 -1 36 6.0483865439891815e-02</internalNodes>
          <leafValues>
            -1.5268144607543945e+00 1.5268144607543945e+00</leafValues></_></weakClassifiers></_>
    <!-- stage 1 -->
    <_>
      <maxWeakCount>5</maxWeakCount>
      <stageThreshold>-2.0536499023437500e+00</stageThreshold>
      <weakClassifiers>
        <_>
          <internalNodes>
            0 -1 60 -6.0260307043790817e-02</internalNodes>
          <leafValues>
            1.7598634958267212e+00 -1.7598634958267212e+00</leafValues></_>
        <_>
          <internalNodes>
            0 -1 9 7.5576350092887878e-02</internalNodes>
          <leafValues>
            -1.5449703931808472e+00 1.5449703931808472e+00</leafValues></_>
        <_>
          <internalNodes>
            0 -1 28 -3.0758630484342575e-02</internalNodes>
          <leafValues>
            1.3360265493392944e+00 -1.3360265493392944e+00</leafValues></_>
        <_>
          <internalNodes>
            0 -1 19 9.9038213491439819e-02</internalNodes>
          <leafValues>
            -1.3692873716354370e+00 1.3692873716354370e+00</leafValues></_>
        <_>
          <internalNodes>
            0 -1 13 1.4137537777423859e-01</internalNodes>
          <leafValues>
            -1.2844449281692505e+00 1.2844449281692505e+00</leafValues></_></weakClassifiers></_>
    <!-- stage 2 -->
    <_>
      <maxWeakCount>8</maxWeakCount>
      <stageThreshold>-2.4586293697357178e+00</stageThreshold>
      <weakClassifiers>
        <_>
          <internalNodes>
            0 -1 37 1.3388264179229736e-01</internalNodes>
          <leafValues>
            -1.3422561883926392e+00 1.3422561883926392e+00</leafValues></_>
        <_>
          <internalNodes>
            0 -1 29 6.3030183315277100e-02</internalNodes>
          <leafValues>
            -1.1621515750885010e+00 1.1621515750885010e+00</leafValues></_>
        <_>
          <internalNodes>
            0 -1 59 -1.1470565199851990e-01</internalNodes>
          <leafValues>
            1.1173084974288940e+00 -1.1173084974288940e+00</leafValues></_>
        <_>
          <internalNodes>
            0 -1 51 -1.7332176212221384e-03</internalNodes>
          <leafValues>
            1.1100409030914307e+00 -1.1100409030914307e+00</leafValues></_>
        <_>
          <internalNodes>
            0 -1 5 2.7360540628433228e-01</internalNodes>
          <leafValues>
            -9.7542756795883179e-01 9.7542756795883179e-01</leafValues></_>
        <_>
          <internalNodes>
            0 -1 3 1.9187750876881182e-04</internalNodes>
          <leafValues>
            9.8340070247650146e-01 -9.8340070247650146e-01</leafValues></_>
        <_>
          <internalNodes>
            0 -1 12 4.5300048589706421e-01</internalNodes>
          <leafValues>
            -1.1329332590103149e+00 1.1329332590103149e+00</leafValues></_>
        <_>
          <internalNodes>
            0 -1 3 -1.2174183939350769e-04</internalNodes>
          <leafValues>
            -1.0737849473953247e+00 1.0737849473953247e+00</leafValues></_></weakClassifiers></_>
    <!-- stage 3 -->
    <_>
      <maxWeakCount>8</maxWeakCount>
      <stageThreshold>-2.6025676727294922e+00</stageThreshold>
      <weakClassifiers>
        <_>
          <internalNodes>
            0 -1 10 1.1052740365266800e-01</internalNodes>
          <leafValues>
            -1.3059076070785522e+00 1.3059076070785522e+00</leafValues></_>
        <_>
          <internalNodes>
            0 -1 45 2.1544724702835083e-01</internalNodes>
          <leafValues>
            -1.1621415615081787e+00 1.1621415615081787e+00</leafValues></_>
        <_>
          <internalNodes>
            0 -1 24 7.0282919332385063e-03</internalNodes>
          <leafValues>
            -1.1696231365203857e+00 1.1696231365203857e+00</leafValues></_>
        <_>
          <internalNodes>
            0 -1 27 -4.6534825116395950e-02</internalNodes>
          <leafValues>
            9.4478744268417358e-01 -9.4478744268417358e-01</leafValues></_>
        <_>
          <internalNodes>
            0 -1 38 6.4133591949939728e-02</internalNodes>
          <leafValues>
            -9.6627962589263916e-01 9.6627962589263916e-01</leafValues></_>
        <_>
          <internalNodes>
            0 -1 31 4.6130283735692501e-03</internalNodes>
          <leafValues>
            -7.8068715333938599e-01 7.8068715333938599e-01</leafValues></_>
        <_>
          <internalNodes>
            0 -1 40 -3.5304987430572510e-01</internalNodes>
          <leafValues>
            7.5617963075637817e-01 -7.5617963075637817e-01</leafValues></_>
        <_>
          <internalNodes>
            0 -1 0 1.5307861031033099e-04</internalNodes>
          <leafValues>
            1.0320894718170166e+00 -1.0320894718170166e+00</leafValues></_></weakClassifiers></_>
    <!-- stage 4 -->
    <_>
      <maxWeakCount>7</maxWeakCount>
      <stageThreshold>-2.7972593307495117e+00</stageThreshold>
      <weakClassifiers>
        <_>
          <internalNodes>
            0 -1 11 7.5954906642436981e-02</internalNodes>
          <leafValues>
            -1.0832530260086060e+00 1.0832530260086060e+00</leafValues></_>
        <_>
          <internalNodes>
            0 -1 0 -8.9152876171283424e-05</internalNodes>
          <leafValues>
            -1.1760987043380737e+00 1.1760987043380737e+00</leafValues></_>
        <_>
          <internalNodes>
            0 -1 30 4.0495462715625763e-02</internalNodes>
          <leafValues>
            -9.8834055662155151e-01 9.8834055662155151e-01</leafValues></_>
        <_>
          <internalNodes>
            0 -1 17 4.1367847472429276e-02</internalNodes>
          <leafValues>
            -9.6010762453079224e-01 9.6010762453079224e-01</leafValues></_>
        <_>
          <internalNodes>
            0 -1 64 -1.9238498061895370e-02</internalNodes>
          <leafValues>
            8.4534043073654175e-01 -8.4534043073654175e-01</leafValues></_>
        <_>
          <internalNodes>
            0 -1 66 -1.7553679936099797e-04</internalNodes>
          <leafValues>
            -8.9069098234176636e-01 8.9069098234176636e-01</leafValues></_>
        <_>
          <internalNodes>
            0 -1 42 -4.1061016917228699e-01</internalNodes>
          <leafValues>
            9.8700737953186035e-01 -9.8700737953186035e-01</leafValues></_></weakClassifiers></_>
    <!-- stage 5 -->
    <_>
      <maxWeakCount>10</maxWeakCount>
      <stageThreshold>-2.2010500431060791e+00</stageThreshold>
      <weakClassifiers>
        <_>
          <internalNodes>
            0 -1 34 1.2113781273365021e-01</internalNodes>
          <leafValues>
            -1.0859158039093018e+00 1.0859158039093018e+00</leafValues></_>
        <_>
          <internalNodes>
            0 -1 26 -5.9698643162846565e-03</internalNodes>
          <leafValues>
            8.9228236675262451e-01 -8.9228236675262451e-01</leafValues></_>
        <_>
          <internalNodes>
            0 -1 6 3.0800801515579224e-01</internalNodes>
          <leafValues>
            -9.6981239318847656e-01 9.6981239318847656e-01</leafValues></_>
        <_>
          <internalNodes>
            0 -1 47 1.4815645292401314e-02</internalNodes>
          <leafValues>
            -8.7261807918548584e-01 8.7261807918548584e-01</leafValues></_>
        <_>
          <internalNodes>
            0 -1 4 1.3151121139526367e-01</internalNodes>
          <leafValues>
            -8.6578458547592163e-01 8.6578458547592163e-01</leafValues></_>
        <_>
          <internalNodes>
            0 -1 65 -5.6796385906636715e-03</internalNodes>
          <leafValues>
            9.1227871179580688e-01 -9.1227871179580688e-01</leafValues></_>
        <_>
          <internalNodes>
            0 -1 67 1.0832895350176841e-04</internalNodes>
          <leafValues>
            8.3568179607391357e-01 -8.3568179607391357e-01</leafValues></_>
        <_>
          <internalNodes>
            0 -1 41 -3.1321805715560913e-01</internalNodes>
          <leafValues>
            9.7528183460235596e-01 -9.7528183460235596e-01</leafValues></_>
        <_>
          <internalNodes>
            0 -1 69 -1.3507023686543107e-04</internalNodes>
          <leafValues>
            -8.9766699075698853e-01 8.9766699075698853e-01</leafValues></_>
        <_>
          <internalNodes>
            0 -1 23 2.7313825488090515e-01</internalNodes>
          <leafValues>
            -8.9022594690322876e-01 8.9022594690322876e-01</leafValues></_></weakClassifiers></_>
    <!-- stage 6 -->
    <_>
      <maxWeakCount>10</maxWeakCount>
      <stageThreshold>-2.1464312076568604e+00</stageThreshold>
      <weakClassifiers>
        <_>
          <internalNodes>
            0 -1 39 7.0754081010818481e-02</internalNodes>
          <leafValues>
            -9.6429997682571411e-01 9.6429997682571411e-01</leafValues></_>
        <_>
          <internalNodes>
            0 -1 58 -3.8359217345714569e-02</internalNodes>
          <leafValues>
            8.9901387691497803e-01 -8.9901387691497803e-01</leafValues></_>
        <_>
          <internalNodes>
            0 -1 69 1.6812144895084202e-04</internalNodes>
          <leafValues>
            7.9241216182708740e-01 -7.9241216182708740e-01</leafValues></_>
        <_>
          <internalNodes>
            0 -1 7 5.5625486373901367e-01</internalNodes>
          <leafValues>
            -9.4124299287796021e-01 9.4124299287796021e-01</leafValues></_>
        <_>
          <internalNodes>
            0 -1 25 -7.3876231908798218e-02</internalNodes>
          <leafValues>
            8.7298899888992310e-01 -8.7298899888992310e-01</leafValues></_>
        <_>
          <internalNodes>
            0 -1 48 1.8457429483532906e-02</internalNodes>
          <leafValues>
            -8.8858431577682495e-01 8.8858431577682495e-01</leafValues></_>
        <_>
          <internalNodes>
            0 -1 61 -1.2335941195487976e-02</internalNodes>
          <leafValues>
            -7.9429954290390015e-01 7.9429954290390015e-01</leafValues></_>
        <_>
          <internalNodes>
            0 -1 35 -3.7550067901611328e-01</internalNodes>
          <leafValues>
            7.6813143491744995e-01 -7.6813143491744995e-01</leafValues></_>
        <_>
          <internalNodes>
            0 -1 2 -2.2312384680844843e-04</internalNodes>
          <leafValues>
            -8.7180107831954956e-01 8.7180107831954956e-01</leafValues></_>
        <_>
          <internalNodes>
            0 -1 68 -7.7175409533083439e-03</internalNodes>
          <leafValues>
            8.0932098627090454e-01 -8.0932098627090454e-01</leafValues></_></weakClassifiers></_>
    <!-- stage 7 -->
    <_>
      <maxWeakCount>12</maxWeakCount>
      <stageThreshold>-2.1355674266815186e+00</stageThreshold>
      <weakClassifiers>
        <_>
          <internalNodes>
            0 -1 52 -9.4836689531803131e-02</internalNodes>
          <leafValues>
            9.2687284946441650e-01 -9.2687284946441650e-01</leafValues></_>
        <_>
          <internalNodes>
            0 -1 62 8.1418827176094055e-03</internalNodes>
          <leafValues>
            -8.7561470270156860e-01 8.7561470270156860e-01</leafValues></_>
        <_>
          <internalNodes>
            0 -1 16 1.1131636798381805e-02</internalNodes>
          <leafValues>
            -8.0834066867828369e-01 8.0834066867828369e-01</leafValues></_>
        <_>
          <internalNodes>
            0 -1 22 5.3180083632469177e-02</internalNodes>
          <leafValues>
            -8.9157956838607788e-01 8.9157956838607788e-01</leafValues></_>
        <_>
          <internalNodes>
            0 -1 3 1.8363961135037243e-04</internalNodes>
          <leafValues>
            7.5140619277954102e-01 -7.5140619277954102e-01</leafValues></_>
        <_>
          <internalNodes>
            0 -1 56 -6.9925701245665550e-04</internalNodes>
          <leafValues>
            8.4088933467864990e-01 -8.4088933467864990e-01</leafValues></_>
        <_>
          <internalNodes>
            0 -1 18 -5.6612230837345123e-03</internalNodes>
          <leafValues>
            8.0604749917984009e-01 -8.0604749917984009e-01</leafValues></_>
        <_>
          <internalNodes>
            0 -1 14 6.7768795415759087e-03</internalNodes>
          <leafValues>
            -6.9211798906326294e-01 6.9211798906326294e-01</leafValues></_>
        <_>
          <internalNodes>
            0 -1 54 1.6515691578388214e-01</internalNodes>
          <leafValues>
            -7.3756331205368042e-01 7.3756331205368042e-01</leafValues></_>
        <_>
          <internalNodes>
            0 -1 63 -7.4173614848405123e-05</internalNodes>
          <leafValues>
            -6.7872184514999390e-01 6.7872184514999390e-01</leafValues></_>
        <_>
          <internalNodes>
            0 -1 53 -1.9831776618957520e-01</internalNodes>
          <leafValues>
            8.4365803003311157e-01 -8.4365803003311157e-01</leafValues></_>
        <_>
          <internalNodes>
            0 -1 32 5.0481013953685760e-02</internalNodes>
          <leafValues>
            -7.6518040895462036e-01 7.6518040895462036e-01</leafValues></_></weakClassifiers></_>
    <!-- stage 8 -->
    <_>
      <maxWeakCount>13</maxWeakCount>
      <stageThreshold>-2.2101004123687744e+00</stageThreshold>
      <weakClassifiers>
        <_>
          <internalNodes>
            0 -1 43 1.0995483398437500e-01</internalNodes>
          <leafValues>
            -9.6178543567657471e-01 9.6178543567657471e-01</leafValues></_>
        <_>
          <internalNodes>
            0 -1 44 4.6768449246883392e-02</internalNodes>
          <leafValues>
            -8.4591740369796753e-01 8.4591740369796753e-01</leafValues></_>
        <_>
          <internalNodes>
            0 -1 50 -7.6167788356542587e-03</internalNodes>
          <leafValues>
            6.7315775156021118e-01 -6.7315775156021118e-01</leafValues></_>
        <_>
          <internalNodes>
            0 -1 33 9.1410344466567039e-03</internalNodes>
          <leafValues>
            -6.6455858945846558e-01 6.6455858945846558e-01</leafValues></_>
        <_>
          <internalNodes>
            0 -1 1 1.8434168305248022e-04</internalNodes>
          <leafValues>
            6.4583432674407959e-01 -6.4583432674407959e-01</leafValues></_>
        <_>
          <internalNodes>
            0 -1 20 4.9350732564926147e-01</internalNodes>
          <leafValues>
            -8.1542801856994629e-01 8.1542801856994629e-01</leafValues></_>
        <_>
          <internalNodes>
            0 -1 3 -7.7724740549456328e-05</internalNodes>
          <leafValues>
            -7.8812044858932495e-01 7.8812044858932495e-01</leafValues></_>
        <_>
          <internalNodes>
            0 -1 46 -3.3987170457839966e-01</internalNodes>
          <leafValues>
            6.8258625268936157e-01 -6.8258625268936157e-01</leafValues></_>
        <_>
          <internalNodes>
            0 -1 57 8.9476674795150757e-02</internalNodes>
          <leafValues>
            -6.8831706047058105e-01 6.8831706047058105e-01</leafValues></_>
        <_>
          <internalNodes>
            0 -1 21 2.4092447012662888e-02</internalNodes>
          <leafValues>
            -6.7609435319900513e-01 6.7609435319900513e-01</leafValues></_>
        <_>
          <internalNodes>
            0 -1 8 -2.5990203721448779e-04</internalNodes>
          <leafValues>
            6.8497282266616821e-01 -6.8497282266616821e-01</leafValues></_>
        <_>
          <internalNodes>
            0 -1 70 -6.9132377393543720e-04</internalNodes>
          <leafValues>
            -6.7208778858184814e-01 6.7208778858184814e-01</leafValues></_>
        <_>
          <internalNodes>
            0 -1 55 5.0504989922046661e-03</internalNodes>
          <leafValues>
            -6.8834561109542847e-01 6.8834561109542847e-01</leafValues></_></weakClassifiers></_></stages>
  <features>
    <_>
      <rects>
        <_>
          0 0 2 2 -1.</_>
        <_>
          1 0 1 2 2.</_></rects>
      <tilted>0</tilted></_>
    <_>
      <rects>
        <_>
          0 0 1 4 -1.</_>
        <_>
          0 2 1 2 2.</_></rects>
      <tilted>0</tilted></_>
    <_>
      <rects>
        <_>
          0 0 1 6 -1.</_>
        <_>
          0 2 1 2 3.</_></rects>
      <tilted>0</tilted></_>
    <_>
      <rects>
        <_>
          0 0 4 1 -1.</_>
        <_>
          2 0 2 1 2.</_></rects>
      <tilted>0</tilted></_>
    <_>
      <rects>
        <_>
          0 4 8 18 -1.</_>
        <_>
          4 4 4 18 2.</_></rects>
      <tilted>0</tilted></_>
    <_>
      <rects>
        <_>
          0 4 21 17 -1.</_>
        <_>
          7 4 7 17 3.</_></rects>
      <tilted>0</tilted></_>
    <_>
      <rects>
        <_>
          0 4 18 19 -1.</_>
        <_>
          9 4 9 19 2.</_></rects>
      <tilted>0</tilted></_>
    <_>
      <rects>
        <_>
          0 4 22 17 -1.</_>
        <_>
          11 4 11 17 2.</_></rects>
      <tilted>0</tilted></_>
    <_>
      <rects>
        <_>
          0 5 4 1 -1.</_>
        <_>
          2 5 2 1 2.</_></rects>
      <tilted>0</tilted></_>
    <_>
      <rects>
        <_>
          0 5 8 15 -1.</_>
        <_>
          4 5 4 15 2.</_></rects>
      <tilted>0</tilted></_>
    <_>
      <rects>
        <_>
          0 5 10 19 -1.</_>
        <_>
          5 5 5 19 2.</_></rects>
      <tilted>0</tilted></_>
    <_>
      <rects>
        <_>
          0 6 24 2 -1.</_>
        <_>
          8 6 8 2 3.</_></rects>
      <tilted>0</tilted></_>
    <_>
      <rects>
        <_>
          0 6 22 14 -1.</_>
        <_>
          11 6 11 14 2.</_></rects>
      <tilted>0</tilted></_>
    <_>
      <rects>
        <_>
          0 12 18 9 -1.</_>
        <_>
          9 12 9 9 2.</_></rects>
      <tilted>0</tilted></_>
    <_>
      <rects>
        <_>
          0 13 4 4 -1.</_>
        <_>
          2 13 2 4 2.</_></rects>
      <tilted>0</tilted></_>
    <_>
      <rects>
        <_>
          0 13 10 8 -1.</_>
        <_>
          5 13 5 8 2.</_></rects>
      <tilted>0</tilted></_>
    <_>
      <rects>
        <_>
          0 16 10 2 -1.</_>
        <_>
          5 16 5 2 2.</_></rects>
      <tilted>0</tilted></_>
    <_>
      <rects>
        <_>
          0 17 10 7 -1.</_>
        <_>
          5 17 5 7 2.</_></rects>
      <tilted>0</tilted></_>
    <_>
      <rects>
        <_>
          0 21 23 3 -1.</_>
        <_>
          0 22 23 1 3.</_></rects>
      <tilted>0</tilted></_>
    <_>
      <rects>
        <_>
          1 0 21 14 -1.</_>
        <_>
          1 7 21 7 2.</_></rects>
      <tilted>0</tilted></_>
    <_>
      <rects>
        <_>
          1 6 20 15 -1.</_>
        <_>
          11 6 10 15 2.</_></rects>
      <tilted>0</tilted></_>
    <_>
      <rects>
        <_>
          1 7 7 15 -1.</_>
        <_>
          1 12 7 5 3.</_></rects>
      <tilted>0</tilted></_>
    <_>
      <rects>
        <_>
          1 7 18 2 -1.</_>
        <_>
          10 7 9 2 2.</_></rects>
      <tilted>0</tilted></_>
    <_>
      <rects>
        <_>
          1 7 18 11 -1.</_>
        <_>
          10 7 9 11 2.</_></rects>
      <tilted>0</tilted></_>
    <_>
      <rects>
        <_>
          1 12 22 3 -1.</_>
        <_>
          1 13 22 1 3.</_></rects>
      <tilted>0</tilted></_>
    <_>
      <rects>
        <_>
          1 13 22 10 -1.</_>
        <_>
          1 18 22 5 2.</_></rects>
      <tilted>0</tilted></_>
    <_>
      <rects>
        <_>
          1 14 6 6 -1.</_>
        <_>
          1 17 6 3 2.</_></rects>
      <tilted>0</tilted></_>
    <_>
      <rects>
        <_>
          1 15 22 8 -1.</_>
        <_>
          1 19 22 4 2.</_></rects>
      <tilted>0</tilted></_>
    <_>
      <rects>
        <_>
          2 8 22 6 -1.</_>
        <_>
          2 10 22 2 3.</_></rects>
      <tilted>0</tilted></_>
    <_>
      <rects>
        <_>
          2 9 19 12 -1.</_>
        <_>
          2 13 19 4 3.</_></rects>
      <tilted>0</tilted></_>
    <_>
      <rects>
        <_>
          2 10 21 6 -1.</_>
        <_>
          2 12 21 2 3.</_></rects>
      <tilted>0</tilted></_>
    <_>
      <rects>
        <_>
          2 13 22 3 -1.</_>
        <_>
          2 14 22 1 3.</_></rects>
      <tilted>0</tilted></_>
    <_>
      <rects>
        <_>
          2 18 16 4 -1.</_>
        <_>
          10 18 8 4 2.</_></rects>
      <tilted>0</tilted></_>
    <_>
      <rects>
        <_>
          2 20 6 3 -1.</_>
        <_>
          5 20 3 3 2.</_></rects>
      <tilted>0</tilted></_>
    <_>
      <rects>
        <_>
          3 1 17 8 -1.</_>
        <_>
          3 5 17 4 2.</_></rects>
      <tilted>0</tilted></_>
    <_>
      <rects>
        <_>
          3 6 20 14 -1.</_>
        <_>
          13 6 10 14 2.</_></rects>
      <tilted>0</tilted></_>
    <_>
      <rects>
        <_>
          3 9 20 12 -1.</_>
        <_>
          3 13 20 4 3.</_></rects>
      <tilted>0</tilted></_>
    <_>
      <rects>
        <_>
          4 0 18 10 -1.</_>
        <_>
          4 5 18 5 2.</_></rects>
      <tilted>0</tilted></_>
    <_>
      <rects>
        <_>
          4 2 18 9 -1.</_>
        <_>
          4 5 18 3 3.</_></rects>
      <tilted>0</tilted></_>
    <_>
      <rects>
        <_>
          4 3 17 9 -1.</_>
        <_>
          4 6 17 3 3.</_></rects>
      <tilted>0</tilted></_>
    <_>
      <rects>
        <_>
          4 4 20 16 -1.</_>
        <_>
          14 4 10 16 2.</_></rects>
      <tilted>0</tilted></_>
    <_>
      <rects>
        <_>
          4 5 18 17 -1.</_>
        <_>
          13 5 9 17 2.</_></rects>
      <tilted>0</tilted></_>
    <_>
      <rects>
        <_>
          4 6 20 14 -1.</_>
        <_>
          14 6 10 14 2.</_></rects>
      <tilted>0</tilted></_>
    <_>
      <rects>
        <_>
          5 1 12 12 -1.</_>
        <_>
          5 5 12 4 3.</_></rects>
      <tilted>0</tilted></_>
    <_>
      <rects>
        <_>
          5 10 19 9 -1.</_>
        <_>
          5 13 19 3 3.</_></rects>
      <tilted>0</tilted></_>
    <_>
      <rects>
        <_>
          6 3 18 18 -1.</_>
        <_>
          12 3 6 18 3.</_></rects>
      <tilted>0</tilted></_>
    <_>
      <rects>
        <_>
          6 5 18 16 -1.</_>
        <_>
          15 5 9 16 2.</_></rects>
      <tilted>0</tilted></_>
    <_>
      <rects>
        <_>
          6 10 11 4 -1.</_>
        <_>
          6 12 11 2 2.</_></rects>
      <tilted>0</tilted></_>
    <_>
      <rects>
        <_>
          6 20 18 4 -1.</_>
        <_>
          6 20 9 2 2.</_>
        <_>
          15 22 9 2 2.</_></rects>
      <tilted>0</tilted></_>
    <_>
      <rects>
        <_>
          7 0 15 10 -1.</_>
        <_>
          7 5 15 5 2.</_></rects>
      <tilted>0</tilted></_>
    <_>
      <rects>
        <_>
          7 9 6 10 -1.</_>
        <_>
          7 9 3 5 2.</_>
        <_>
          10 14 3 5 2.</_></rects>
      <tilted>0</tilted></_>
    <_>
      <rects>
        <_>
          7 21 17 3 -1.</_>
        <_>
          7 22 17 1 3.</_></rects>
      <tilted>0</tilted></_>
    <_>
      <rects>
        <_>
          8 4 16 7 -1.</_>
        <_>
          16 4 8 7 2.</_></rects>
      <tilted>0</tilted></_>
    <_>
      <rects>
        <_>
          8 6 14 16 -1.</_>
        <_>
          15 6 7 16 2.</_></rects>
      <tilted>0</tilted></_>
    <_>
      <rects>
        <_>
          9 5 15 17 -1.</_>
        <_>
          14 5 5 17 3.</_></rects>
      <tilted>0</tilted></_>
    <_>
      <rects>
        <_>
          11 0 9 2 -1.</_>
        <_>
          11 1 9 1 2.</_></rects>
      <tilted>0</tilted></_>
    <_>
      <rects>
        <_>
          12 12 1 4 -1.</_>
        <_>
          12 14 1 2 2.</_></rects>
      <tilted>0</tilted></_>
    <_>
      <rects>
        <_>
          14 0 10 16 -1.</_>
        <_>
          14 8 10 8 2.</_></rects>
      <tilted>0</tilted></_>
    <_>
      <rects>
        <_>
          14 15 10 7 -1.</_>
        <_>
          19 15 5 7 2.</_></rects>
      <tilted>0</tilted></_>
    <_>
      <rects>
        <_>
          16 4 8 19 -1.</_>
        <_>
          20 4 4 19 2.</_></rects>
      <tilted>0</tilted></_>
    <_>
      <rects>
        <_>
          16 5 8 17 -1.</_>
        <_>
          20 5 4 17 2.</_></rects>
      <tilted>0</tilted></_>
    <_>
      <rects>
        <_>
          18 0 6 24 -1.</_>
        <_>
          18 12 6 12 2.</_></rects>
      <tilted>0</tilted></_>
    <_>
      <rects>
        <_>
          18 11 6 6 -1.</_>
        <_>
          18 13 6 2 3.</_></rects>
      <tilted>0</tilted></_>
    <_>
      <rects>
        <_>
          19 0 2 1 -1.</_>
        <_>
          20 0 1 1 2.</_></rects>
      <tilted>0</tilted></_>
    <_>
      <rects>
        <_>
          20 10 4 7 -1.</_>
        <_>
          22 10 2 7 2.</_></rects>
      <tilted>0</tilted></_>
    <_>
      <rects>
        <_>
          20 11 4 6 -1.</_>
        <_>
          22 11 2 6 2.</_></rects>
      <tilted>0</tilted></_>
    <_>
      <rects>
        <_>
          22 0 2 3 -1.</_>
        <_>
          23 0 1 3 2.</_></rects>
      <tilted>0</tilted></_>
    <_>
      <rects>
        <_>
          22 1 2 2 -1.</_>
        <_>
          23 1 1 2 2.</_></rects>
      <tilted>0</tilted></_>
    <_>
      <rects>
        <_>
          22 10 2 6 -1.</_>
        <_>
          23 10 1 6 2.</_></rects>
      <tilted>0</tilted></_>
    <_>
      <rects>
        <_>
          23 0 1 4 -1.</_>
        <_>
          23 2 1 2 2.</_></rects>
      <tilted>0</tilted></_>
    <_>
      <rects>
        <_>
          23 0 1 9 -1.</_>
        <_>
          23 3 1 3 3.</_></rects>
      <tilted>0</tilted></_></features></cascade>
</opencv_storage>
