<?xml version="1.0"?>
<opencv_storage>
<cascade>
  <stageType>BOOST</stageType>
  <featureType>HAAR</featureType>
  <height>20</height>
  <width>20</width>
  <stageParams>
    <boostType>DAB</boostType>
    <minHitRate>9.9500000476837158e-01</minHitRate>
    <maxFalseAlarm>5.0000000000000000e-01</maxFalseAlarm>
    <weightTrimRate>9.4999998807907104e-01</weightTrimRate>
    <maxDepth>1</maxDepth>
    <maxWeakCount>100</maxWeakCount></stageParams>
  <featureParams>
    <maxCatCount>0</maxCatCount>
    <featSize>1</featSize>
    <mode>BASIC</mode></featureParams>
  <stageNum>11</stageNum>
  <stages>
    <!-- stage 0 -->
    <_>
      <maxWeakCount>2</maxWeakCount>
      <stageThreshold>-1.5231553316116333e+00</stageThreshold>
      <weakClassifiers>
        <_>
          <internalNodes>
            0 -1 23 1.6758667305111885e-02</internalNodes>
          <leafValues>
            -3.4693191051483154e+00 3.4693191051483154e+00</leafValues></_>
        <_>
          <internalNodes>
            0 -1 41 1.0606025345623493e-02</internalNodes>
          <leafValues>
            -1.9461636543273926e+00 1.9461636543273926e+00</leafValues></_></weakClassifiers></_>
    <!-- stage 1 -->
    <_>
      <maxWeakCount>4</maxWeakCount>
      <stageThreshold>-1.5297617912292480e+00</stageThreshold>
      <weakClassifiers>
        <_>
          <internalNodes>
            0 -1 30 -2.3704715073108673e-02</internalNodes>
          <leafValues>
            3.1391196250915527e+00 -3.1391196250915527e+00</leafValues></_>
        <_>
          <internalNodes>
            0 -1 42 9.8858950659632683e-03</internalNodes>
          <leafValues>
            -1.9607855081558228e+00 1.9607855081558228e+00</leafValues></_>
        <_>
          <internalNodes>
            0 -1 44 1.4708222588524222e-03</internalNodes>
          <leafValues>
            -1.8250724077224731e+00 1.8250724077224731e+00</leafValues></_>
        <_>
          <internalNodes>
            0 -1 6 1.3250085711479187e-01</internalNodes>
          <leafValues>
            -1.4736448526382446e+00 1.4736448526382446e+00</leafValues></_></weakClassifiers></_>
    <!-- stage 2 -->
    <_>
      <maxWeakCount>5</maxWeakCount>
      <stageThreshold>-4.3665885925292969e-01</stageThreshold>
      <weakClassifiers>
        <_>
          <internalNodes>
            0 -1 29 2.3444527760148048e-03</internalNodes>
          <leafValues>
            -2.7736732959747314e+00 2.7736732959747314e+00</leafValues></_>
        <_>
          <internalNodes>
            0 -1 26 -8.5010111331939697e-02</internalNodes>
          <leafValues>
            1.8318691253662109e+00 -1.8318691253662109e+00</leafValues></_>
        <_>
          <internalNodes>
            0 -1 38 -6.6409315913915634e-03</internalNodes>
          <leafValues>
            1.3778655529022217e+00 -1.3778655529022217e+00</leafValues></_>
        <_>
          <internalNodes>
            0 -1 3 8.3940863609313965e-02</internalNodes>
          <leafValues>
            -1.2670446634292603e+00 1.2670446634292603e+00</leafValues></_>
        <_>
          <internalNodes>
            0 -1 24 -2.1896521502640098e-05</internalNodes>
          <leafValues>
            1.2676419019699097e+00 -1.2676419019699097e+00</leafValues></_></weakClassifiers></_>
    <!-- stage 3 -->
    <_>
      <maxWeakCount>5</maxWeakCount>
      <stageThreshold>-2.2280609607696533e+00</stageThreshold>
      <weakClassifiers>
        <_>
          <internalNodes>
            0 -1 68 3.7904009222984314e-03</internalNodes>
          <leafValues>
            -2.8265359401702881e+00 2.8265359401702881e+00</leafValues></_>
        <_>
          <internalNodes>
            0 -1 35 -4.0132459253072739e-03</internalNodes>
          <leafValues>
            1.4412244558334351e+00 -1.4412244558334351e+00</leafValues></_>
        <_>
          <internalNodes>
            0 -1 43 2.4398963898420334e-02</internalNodes>
          <leafValues>
            -1.2202335596084595e+00 1.2202335596084595e+00</leafValues></_>
        <_>
          <internalNodes>
            0 -1 55 -1.0912421159446239e-02</internalNodes>
          <leafValues>
            1.2404739856719971e+00 -1.2404739856719971e+00</leafValues></_>
        <_>
          <internalNodes>
            0 -1 12 -2.3854400962591171e-02</internalNodes>
          <leafValues>
            1.1526647806167603e+00 -1.1526647806167603e+00</leafValues></_></weakClassifiers></_>
    <!-- stage 4 -->
    <_>
      <maxWeakCount>5</maxWeakCount>
      <stageThreshold>-2.7468746900558472e-01</stageThreshold>
      <weakClassifiers>
        <_>
          <internalNodes>
            0 -1 51 -4.4694528914988041e-03</internalNodes>
          <leafValues>
            2.6464042663574219e+00 -2.6464042663574219e+00</leafValues></_>
        <_>
          <internalNodes>
            0 -1 36 6.2783900648355484e-03</internalNodes>
          <leafValues>
            -1.3372846841812134e+00 1.3372846841812134e+00</leafValues></_>
        <_>
          <internalNodes>
            0 -1 15 4.1674979031085968e-02</internalNodes>
          <leafValues>
            -1.2623095512390137e+00 1.2623095512390137e+00</leafValues></_>
        <_>
          <internalNodes>
            0 -1 2 5.0790440291166306e-02</internalNodes>
          <leafValues>
            -1.2442084550857544e+00 1.2442084550857544e+00</leafValues></_>
        <_>
          <internalNodes>
            0 -1 57 -1.8099026056006551e-04</internalNodes>
          <leafValues>
            1.0525331497192383e+00 -1.0525331497192383e+00</leafValues></_></weakClassifiers></_>
    <!-- stage 5 -->
    <_>
      <maxWeakCount>5</maxWeakCount>
      <stageThreshold>-3.3797582983970642e-01</stageThreshold>
      <weakClassifiers>
        <_>
          <internalNodes>
            0 -1 14 7.8461123630404472e-03</internalNodes>
          <leafValues>
            -2.7143793106079102e+00 2.7143793106079102e+00</leafValues></_>
        <_>
          <internalNodes>
            0 -1 67 -4.3780048144981265e-04</internalNodes>
          <leafValues>
            1.3466730117797852e+00 -1.3466730117797852e+00</leafValues></_>
        <_>
          <internalNodes>
            0 -1 39 -1.0631017386913300e-02</internalNodes>
          <leafValues>
            1.2030888795852661e+00 -1.2030888795852661e+00</leafValues></_>
        <_>
          <internalNodes>
            0 -1 50 -2.5256699882447720e-03</internalNodes>
          <leafValues>
            1.1423770189285278e+00 -1.1423770189285278e+00</leafValues></_>
        <_>
          <internalNodes>
            0 -1 4 -1.2147359549999237e-02</internalNodes>
          <leafValues>
            1.0904422998428345e+00 -1.0904422998428345e+00</leafValues></_></weakClassifiers></_>
    <!-- stage 6 -->
    <_>
      <maxWeakCount>7</maxWeakCount>
      <stageThreshold>-9.0309351682662964e-01</stageThreshold>
      <weakClassifiers>
        <_>
          <internalNodes>
            0 -1 53 1.5957780182361603e-02</internalNodes>
          <leafValues>
            -2.4692068099975586e+00 2.4692068099975586e+00</leafValues></_>
        <_>
          <internalNodes>
            0 -1 60 1.1838222853839397e-03</internalNodes>
          <leafValues>
            -1.4068651199340820e+00 1.4068651199340820e+00</leafValues></_>
        <_>
          <internalNodes>
            0 -1 65 8.5001607658341527e-05</internalNodes>
          <leafValues>
            -1.3264579772949219e+00 1.3264579772949219e+00</leafValues></_>
        <_>
          <internalNodes>
            0 -1 49 -1.5594852447975427e-04</internalNodes>
          <leafValues>
            1.1229101419448853e+00 -1.1229101419448853e+00</leafValues></_>
        <_>
          <internalNodes>
            0 -1 19 -1.8640562891960144e-02</internalNodes>
          <leafValues>
            1.0980384349822998e+00 -1.0980384349822998e+00</leafValues></_>
        <_>
          <internalNodes>
            0 -1 0 5.0578430294990540e-02</internalNodes>
          <leafValues>
            -1.0478341579437256e+00 1.0478341579437256e+00</leafValues></_>
        <_>
          <internalNodes>
            0 -1 62 8.8426591828465462e-03</internalNodes>
          <leafValues>
            -1.0306533575057983e+00 1.0306533575057983e+00</leafValues></_></weakClassifiers></_>
    <!-- stage 7 -->
    <_>
      <maxWeakCount>9</maxWeakCount>
      <stageThreshold>-1.5893462896347046e+00</stageThreshold>
      <weakClassifiers>
        <_>
          <internalNodes>
            0 -1 52 1.6912136226892471e-02</internalNodes>
          <leafValues>
            2.4607300758361816e+00 -2.4607300758361816e+00</leafValues></_>
        <_>
          <internalNodes>
            0 -1 36 1.0196165181696415e-02</internalNodes>
          <leafValues>
            -1.2022962570190430e+00 1.2022962570190430e+00</leafValues></_>
        <_>
          <internalNodes>
            0 -1 8 -2.2014778107404709e-02</internalNodes>
          <leafValues>
            1.1260080337524414e+00 -1.1260080337524414e+00</leafValues></_>
        <_>
          <internalNodes>
            0 -1 11 2.4500267580151558e-02</internalNodes>
          <leafValues>
            -1.1043425798416138e+00 1.1043425798416138e+00</leafValues></_>
        <_>
          <internalNodes>
            0 -1 56 -2.2891322150826454e-03</internalNodes>
          <leafValues>
            1.0265339612960815e+00 -1.0265339612960815e+00</leafValues></_>
        <_>
          <internalNodes>
            0 -1 10 -1.9107652828097343e-02</internalNodes>
          <leafValues>
            9.1353082656860352e-01 -9.1353082656860352e-01</leafValues></_>
        <_>
          <internalNodes>
            0 -1 48 7.9856906086206436e-04</internalNodes>
          <leafValues>
            -9.0406203269958496e-01 9.0406203269958496e-01</leafValues></_>
        <_>
          <internalNodes>
            0 -1 64 1.4534223009832203e-04</internalNodes>
          <leafValues>
            -8.8187909126281738e-01 8.8187909126281738e-01</leafValues></_>
        <_>
          <internalNodes>
            0 -1 63 -2.1894970908761024e-02</internalNodes>
          <leafValues>
            9.5156353712081909e-01 -9.5156353712081909e-01</leafValues></_></weakClassifiers></_>
    <!-- stage 8 -->
    <_>
      <maxWeakCount>10</maxWeakCount>
      <stageThreshold>-1.9055128097534180e+00</stageThreshold>
      <weakClassifiers>
        <_>
          <internalNodes>
            0 -1 31 2.5629987940192223e-03</internalNodes>
          <leafValues>
            -2.5008180141448975e+00 2.5008180141448975e+00</leafValues></_>
        <_>
          <internalNodes>
            0 -1 61 -2.0101889967918396e-03</internalNodes>
          <leafValues>
            1.0933758020401001e+00 -1.0933758020401001e+00</leafValues></_>
        <_>
          <internalNodes>
            0 -1 47 6.4062029123306274e-03</internalNodes>
          <leafValues>
            -1.0034334659576416e+00 1.0034334659576416e+00</leafValues></_>
        <_>
          <internalNodes>
            0 -1 20 -6.8056350573897362e-03</internalNodes>
          <leafValues>
            9.5349901914596558e-01 -9.5349901914596558e-01</leafValues></_>
        <_>
          <internalNodes>
            0 -1 59 1.6312506049871445e-02</internalNodes>
          <leafValues>
            -9.4369786977767944e-01 9.4369786977767944e-01</leafValues></_>
        <_>
          <internalNodes>
            0 -1 70 -5.5344935506582260e-02</internalNodes>
          <leafValues>
            1.0008823871612549e+00 -1.0008823871612549e+00</leafValues></_>
        <_>
          <internalNodes>
            0 -1 40 4.6498817391693592e-04</internalNodes>
          <leafValues>
            -9.0064555406570435e-01 9.0064555406570435e-01</leafValues></_>
        <_>
          <internalNodes>
            0 -1 18 1.6093464568257332e-02</internalNodes>
          <leafValues>
            -8.7868434190750122e-01 8.7868434190750122e-01</leafValues></_>
        <_>
          <internalNodes>
            0 -1 66 -3.5447481786832213e-04</internalNodes>
          <leafValues>
            8.8203209638595581e-01 -8.8203209638595581e-01</leafValues></_>
        <_>
          <internalNodes>
            0 -1 5 2.9104793071746826e-01</internalNodes>
          <leafValues>
            -7.3812288045883179e-01 7.3812288045883179e-01</leafValues></_></weakClassifiers></_>
    <!-- stage 9 -->
    <_>
      <maxWeakCount>10</maxWeakCount>
      <stageThreshold>-5.1366722583770752e-01</stageThreshold>
      <weakClassifiers>
        <_>
          <internalNodes>
            0 -1 22 -4.2544793337583542e-02</internalNodes>
          <leafValues>
            -2.4219522476196289e+00 2.4219522476196289e+00</leafValues></_>
        <_>
          <internalNodes>
            0 -1 17 -2.2952086292207241e-03</internalNodes>
          <leafValues>
            1.0716822147369385e+00 -1.0716822147369385e+00</leafValues></_>
        <_>
          <internalNodes>
            0 -1 69 -6.5324246883392334e-02</internalNodes>
          <leafValues>
            9.5223724842071533e-01 -9.5223724842071533e-01</leafValues></_>
        <_>
          <internalNodes>
            0 -1 46 1.2628647964447737e-03</internalNodes>
          <leafValues>
            -9.8468238115310669e-01 9.8468238115310669e-01</leafValues></_>
        <_>
          <internalNodes>
            0 -1 21 -2.5186873972415924e-02</internalNodes>
          <leafValues>
            9.4936621189117432e-01 -9.4936621189117432e-01</leafValues></_>
        <_>
          <internalNodes>
            0 -1 45 4.1501042433083057e-03</internalNodes>
          <leafValues>
            -8.2118999958038330e-01 8.2118999958038330e-01</leafValues></_>
        <_>
          <internalNodes>
            0 -1 7 -4.8113213852047920e-03</internalNodes>
          <leafValues>
            8.1327021121978760e-01 -8.1327021121978760e-01</leafValues></_>
        <_>
          <internalNodes>
            0 -1 72 4.7583016566932201e-04</internalNodes>
          <leafValues>
            8.4166729450225830e-01 -8.4166729450225830e-01</leafValues></_>
        <_>
          <internalNodes>
            0 -1 13 -1.0729857021942735e-03</internalNodes>
          <leafValues>
            7.4028921127319336e-01 -7.4028921127319336e-01</leafValues></_>
        <_>
          <internalNodes>
            0 -1 28 -1.2800055264960974e-04</internalNodes>
          <leafValues>
            7.8882217407226563e-01 -7.8882217407226563e-01</leafValues></_></weakClassifiers></_>
    <!-- stage 10 -->
    <_>
      <maxWeakCount>13</maxWeakCount>
      <stageThreshold>-1.1903535127639771e+00</stageThreshold>
      <weakClassifiers>
        <_>
          <internalNodes>
            0 -1 54 1.1007206048816442e-03</internalNodes>
          <leafValues>
            -2.3896875381469727e+00 2.3896875381469727e+00</leafValues></_>
        <_>
          <internalNodes>
            0 -1 37 -1.1657327413558960e-03</internalNodes>
          <leafValues>
            9.5575642585754395e-01 -9.5575642585754395e-01</leafValues></_>
        <_>
          <internalNodes>
            0 -1 1 8.4237486124038696e-02</internalNodes>
          <leafValues>
            -9.7728800773620605e-01 9.7728800773620605e-01</leafValues></_>
        <_>
          <internalNodes>
            0 -1 25 -1.8719466403126717e-02</internalNodes>
          <leafValues>
            9.3589359521865845e-01 -9.3589359521865845e-01</leafValues></_>
        <_>
          <internalNodes>
            0 -1 34 -1.3557633385062218e-02</internalNodes>
          <leafValues>
            9.0920913219451904e-01 -9.0920913219451904e-01</leafValues></_>
        <_>
          <internalNodes>
            0 -1 32 2.7996011078357697e-02</internalNodes>
          <leafValues>
            -8.7138003110885620e-01 8.7138003110885620e-01</leafValues></_>
        <_>
          <internalNodes>
            0 -1 27 2.4455296806991100e-03</internalNodes>
          <leafValues>
            -7.4008125066757202e-01 7.4008125066757202e-01</leafValues></_>
        <_>
          <internalNodes>
            0 -1 71 -7.2594091761857271e-04</internalNodes>
          <leafValues>
            8.0966866016387939e-01 -8.0966866016387939e-01</leafValues></_>
        <_>
          <internalNodes>
            0 -1 58 -3.6946393083781004e-04</internalNodes>
          <leafValues>
            6.9432193040847778e-01 -6.9432193040847778e-01</leafValues></_>
        <_>
          <internalNodes>
            0 -1 9 3.1641536951065063e-01</internalNodes>
          <leafValues>
            -6.1663055419921875e-01 6.1663055419921875e-01</leafValues></_>
        <_>
          <internalNodes>
            0 -1 33 4.9159902846440673e-04</internalNodes>
          <leafValues>
            -7.9283016920089722e-01 7.9283016920089722e-01</leafValues></_>
        <_>
          <internalNodes>
            0 -1 16 -5.3514470346271992e-04</internalNodes>
          <leafValues>
            7.0078879594802856e-01 -7.0078879594802856e-01</leafValues></_>
        <_>
          <internalNodes>
            0 -1 73 -3.8539998233318329e-02</internalNodes>
          <leafValues>
            7.0820438861846924e-01 -7.0820438861846924e-01</leafValues></_></weakClassifiers></_></stages>
  <features>
    <_>
      <rects>
        <_>
          0 0 4 13 -1.</_>
        <_>
          2 0 2 13 2.</_></rects>
      <tilted>0</tilted></_>
    <_>
      <rects>
        <_>
          0 0 6 16 -1.</_>
        <_>
          3 0 3 16 2.</_></rects>
      <tilted>0</tilted></_>
    <_>
      <rects>
        <_>
          0 0 12 3 -1.</_>
        <_>
          6 0 6 3 2.</_></rects>
      <tilted>0</tilted></_>
    <_>
      <rects>
        <_>
          0 0 18 4 -1.</_>
        <_>
          6 0 6 4 3.</_></rects>
      <tilted>0</tilted></_>
    <_>
      <rects>
        <_>
          0 1 10 6 -1.</_>
        <_>
          0 1 5 3 2.</_>
        <_>
          5 4 5 3 2.</_></rects>
      <tilted>0</tilted></_>
    <_>
      <rects>
        <_>
          0 3 20 16 -1.</_>
        <_>
          10 3 10 16 2.</_></rects>
      <tilted>0</tilted></_>
    <_>
      <rects>
        <_>
          0 3 17 12 -1.</_>
        <_>
          0 7 17 4 3.</_></rects>
      <tilted>0</tilted></_>
    <_>
      <rects>
        <_>
          0 18 12 2 -1.</_>
        <_>
          0 18 6 1 2.</_>
        <_>
          6 19 6 1 2.</_></rects>
      <tilted>0</tilted></_>
    <_>
      <rects>
        <_>
          1 0 8 8 -1.</_>
        <_>
          1 0 4 4 2.</_>
        <_>
          5 4 4 4 2.</_></rects>
      <tilted>0</tilted></_>
    <_>
      <rects>
        <_>
          1 0 16 20 -1.</_>
        <_>
          9 0 8 20 2.</_></rects>
      <tilted>0</tilted></_>
    <_>
      <rects>
        <_>
          1 4 15 3 -1.</_>
        <_>
          1 5 15 1 3.</_></rects>
      <tilted>0</tilted></_>
    <_>
      <rects>
        <_>
          1 17 18 1 -1.</_>
        <_>
          7 17 6 1 3.</_></rects>
      <tilted>0</tilted></_>
    <_>
      <rects>
        <_>
          3 3 6 6 -1.</_>
        <_>
          3 5 6 2 3.</_></rects>
      <tilted>0</tilted></_>
    <_>
      <rects>
        <_>
          3 4 2 2 -1.</_>
        <_>
          3 4 1 1 2.</_>
        <_>
          4 5 1 1 2.</_></rects>
      <tilted>0</tilted></_>
    <_>
      <rects>
        <_>
          3 5 7 4 -1.</_>
        <_>
          3 7 7 2 2.</_></rects>
      <tilted>0</tilted></_>
    <_>
      <rects>
        <_>
          3 5 8 9 -1.</_>
        <_>
          3 8 8 3 3.</_></rects>
      <tilted>0</tilted></_>
    <_>
      <rects>
        <_>
          3 7 6 5 -1.</_>
        <_>
          6 7 3 5 2.</_></rects>
      <tilted>0</tilted></_>
    <_>
      <rects>
        <_>
          3 12 6 2 -1.</_>
        <_>
          3 12 3 1 2.</_>
        <_>
          6 13 3 1 2.</_></rects>
      <tilted>0</tilted></_>
    <_>
      <rects>
        <_>
          3 13 6 6 -1.</_>
        <_>
          3 13 3 3 2.</_>
        <_>
          6 16 3 3 2.</_></rects>
      <tilted>0</tilted></_>
    <_>
      <rects>
        <_>
          4 2 6 12 -1.</_>
        <_>
          4 2 3 6 2.</_>
        <_>
          7 8 3 6 2.</_></rects>
      <tilted>0</tilted></_>
    <_>
      <rects>
        <_>
          4 4 3 3 -1.</_>
        <_>
          4 5 3 1 3.</_></rects>
      <tilted>0</tilted></_>
    <_>
      <rects>
        <_>
          4 4 12 3 -1.</_>
        <_>
          4 5 12 1 3.</_></rects>
      <tilted>0</tilted></_>
    <_>
      <rects>
        <_>
          4 5 12 8 -1.</_>
        <_>
          4 5 6 4 2.</_>
        <_>
          10 9 6 4 2.</_></rects>
      <tilted>0</tilted></_>
    <_>
      <rects>
        <_>
          4 5 12 4 -1.</_>
        <_>
          4 7 12 2 2.</_></rects>
      <tilted>0</tilted></_>
    <_>
      <rects>
        <_>
          4 10 3 2 -1.</_>
        <_>
          4 11 3 1 2.</_></rects>
      <tilted>0</tilted></_>
    <_>
      <rects>
        <_>
          5 1 4 6 -1.</_>
        <_>
          5 4 4 3 2.</_></rects>
      <tilted>0</tilted></_>
    <_>
      <rects>
        <_>
          5 1 11 9 -1.</_>
        <_>
          5 4 11 3 3.</_></rects>
      <tilted>0</tilted></_>
    <_>
      <rects>
        <_>
          5 3 1 3 -1.</_>
        <_>
          5 4 1 1 3.</_></rects>
      <tilted>0</tilted></_>
    <_>
      <rects>
        <_>
          5 3 3 2 -1.</_>
        <_>
          6 3 1 2 3.</_></rects>
      <tilted>0</tilted></_>
    <_>
      <rects>
        <_>
          5 3 6 4 -1.</_>
        <_>
          8 3 3 4 2.</_></rects>
      <tilted>0</tilted></_>
    <_>
      <rects>
        <_>
          5 3 11 6 -1.</_>
        <_>
          5 5 11 2 3.</_></rects>
      <tilted>0</tilted></_>
    <_>
      <rects>
        <_>
          5 5 1 6 -1.</_>
        <_>
          5 8 1 3 2.</_></rects>
      <tilted>0</tilted></_>
    <_>
      <rects>
        <_>
          5 5 9 2 -1.</_>
        <_>
          8 5 3 2 3.</_></rects>
      <tilted>0</tilted></_>
    <_>
      <rects>
        <_>
          5 8 6 3 -1.</_>
        <_>
          5 9 6 1 3.</_></rects>
      <tilted>0</tilted></_>
    <_>
      <rects>
        <_>
          5 16 10 4 -1.</_>
        <_>
          5 18 10 2 2.</_></rects>
      <tilted>0</tilted></_>
    <_>
      <rects>
        <_>
          6 11 2 6 -1.</_>
        <_>
          6 13 2 2 3.</_></rects>
      <tilted>0</tilted></_>
    <_>
      <rects>
        <_>
          6 11 8 3 -1.</_>
        <_>
          6 12 8 1 3.</_></rects>
      <tilted>0</tilted></_>
    <_>
      <rects>
        <_>
          6 12 2 2 -1.</_>
        <_>
          6 13 2 1 2.</_></rects>
      <tilted>0</tilted></_>
    <_>
      <rects>
        <_>
          6 12 8 2 -1.</_>
        <_>
          6 13 8 1 2.</_></rects>
      <tilted>0</tilted></_>
    <_>
      <rects>
        <_>
          6 12 8 3 -1.</_>
        <_>
          6 13 8 1 3.</_></rects>
      <tilted>0</tilted></_>
    <_>
      <rects>
        <_>
          7 3 2 2 -1.</_>
        <_>
          8 3 1 2 2.</_></rects>
      <tilted>0</tilted></_>
    <_>
      <rects>
        <_>
          7 3 6 3 -1.</_>
        <_>
          9 3 2 3 3.</_></rects>
      <tilted>0</tilted></_>
    <_>
      <rects>
        <_>
          7 3 6 4 -1.</_>
        <_>
          9 3 2 4 3.</_></rects>
      <tilted>0</tilted></_>
    <_>
      <rects>
        <_>
          7 4 6 7 -1.</_>
        <_>
          9 4 2 7 3.</_></rects>
      <tilted>0</tilted></_>
    <_>
      <rects>
        <_>
          7 11 2 3 -1.</_>
        <_>
          7 12 2 1 3.</_></rects>
      <tilted>0</tilted></_>
    <_>
      <rects>
        <_>
          8 1 9 3 -1.</_>
        <_>
          8 2 9 1 3.</_></rects>
      <tilted>0</tilted></_>
    <_>
      <rects>
        <_>
          8 5 2 2 -1.</_>
        <_>
          9 5 1 2 2.</_></rects>
      <tilted>0</tilted></_>
    <_>
      <rects>
        <_>
          8 5 3 5 -1.</_>
        <_>
          9 5 1 5 3.</_></rects>
      <tilted>0</tilted></_>
    <_>
      <rects>
        <_>
          8 9 2 2 -1.</_>
        <_>
          9 9 1 2 2.</_></rects>
      <tilted>0</tilted></_>
    <_>
      <rects>
        <_>
          8 18 1 2 -1.</_>
        <_>
          8 19 1 1 2.</_></rects>
      <tilted>0</tilted></_>
    <_>
      <rects>
        <_>
          9 2 4 4 -1.</_>
        <_>
          9 2 2 2 2.</_>
        <_>
          11 4 2 2 2.</_></rects>
      <tilted>0</tilted></_>
    <_>
      <rects>
        <_>
          9 3 6 4 -1.</_>
        <_>
          12 3 3 4 2.</_></rects>
      <tilted>0</tilted></_>
    <_>
      <rects>
        <_>
          9 4 1 15 -1.</_>
        <_>
          9 9 1 5 3.</_></rects>
      <tilted>0</tilted></_>
    <_>
      <rects>
        <_>
          9 5 9 9 -1.</_>
        <_>
          9 8 9 3 3.</_></rects>
      <tilted>0</tilted></_>
    <_>
      <rects>
        <_>
          9 6 8 2 -1.</_>
        <_>
          9 7 8 1 2.</_></rects>
      <tilted>0</tilted></_>
    <_>
      <rects>
        <_>
          10 0 10 1 -1.</_>
        <_>
          15 0 5 1 2.</_></rects>
      <tilted>0</tilted></_>
    <_>
      <rects>
        <_>
          10 4 2 4 -1.</_>
        <_>
          11 4 1 4 2.</_></rects>
      <tilted>0</tilted></_>
    <_>
      <rects>
        <_>
          10 6 1 12 -1.</_>
        <_>
          10 10 1 4 3.</_></rects>
      <tilted>0</tilted></_>
    <_>
      <rects>
        <_>
          10 11 3 1 -1.</_>
        <_>
          11 11 1 1 3.</_></rects>
      <tilted>0</tilted></_>
    <_>
      <rects>
        <_>
          11 0 8 6 -1.</_>
        <_>
          11 0 4 3 2.</_>
        <_>
          15 3 4 3 2.</_></rects>
      <tilted>0</tilted></_>
    <_>
      <rects>
        <_>
          11 11 2 3 -1.</_>
        <_>
          11 12 2 1 3.</_></rects>
      <tilted>0</tilted></_>
    <_>
      <rects>
        <_>
          11 12 3 2 -1.</_>
        <_>
          11 13 3 1 2.</_></rects>
      <tilted>0</tilted></_>
    <_>
      <rects>
        <_>
          12 0 6 8 -1.</_>
        <_>
          12 0 3 4 2.</_>
        <_>
          15 4 3 4 2.</_></rects>
      <tilted>0</tilted></_>
    <_>
      <rects>
        <_>
          12 1 8 2 -1.</_>
        <_>
          16 1 4 2 2.</_></rects>
      <tilted>0</tilted></_>
    <_>
      <rects>
        <_>
          12 8 2 2 -1.</_>
        <_>
          12 8 1 1 2.</_>
        <_>
          13 9 1 1 2.</_></rects>
      <tilted>0</tilted></_>
    <_>
      <rects>
        <_>
          12 9 2 1 -1.</_>
        <_>
          13 9 1 1 2.</_></rects>
      <tilted>0</tilted></_>
    <_>
      <rects>
        <_>
          12 9 2 2 -1.</_>
        <_>
          12 10 2 1 2.</_></rects>
      <tilted>0</tilted></_>
    <_>
      <rects>
        <_>
          12 14 4 2 -1.</_>
        <_>
          12 14 2 1 2.</_>
        <_>
          14 15 2 1 2.</_></rects>
      <tilted>0</tilted></_>
    <_>
      <rects>
        <_>
          13 5 2 4 -1.</_>
        <_>
          13 7 2 2 2.</_></rects>
      <tilted>0</tilted></_>
    <_>
      <rects>
        <_>
          14 0 6 13 -1.</_>
        <_>
          17 0 3 13 2.</_></rects>
      <tilted>0</tilted></_>
    <_>
      <rects>
        <_>
          14 2 6 15 -1.</_>
        <_>
          17 2 3 15 2.</_></rects>
      <tilted>0</tilted></_>
    <_>
      <rects>
        <_>
          14 10 2 2 -1.</_>
        <_>
          14 11 2 1 2.</_></rects>
      <tilted>0</tilted></_>
    <_>
      <rects>
        <_>
          14 11 2 3 -1.</_>
        <_>
          14 12 2 1 3.</_></rects>
      <tilted>0</tilted></_>
    <_>
      <rects>
        <_>
          16 0 4 13 -1.</_>
        <_>
          18 0 2 13 2.</_></rects>
      <tilted>0</tilted></_></features></cascade>
</opencv_storage>
